svm_type c_svc
kernel_type rbf
gamma 0.5
nr_class 2
total_sv 126
rho -8.5636903236113735
label 0 1
nr_sv 64 62
SV
8192 1:-1.7285902 2:-1.7307216 
8192 1:-1.6870209 2:-1.6875874 
8192 1:-1.6385233 2:-1.6410155 
8192 1:-1.596954 2:-1.5968555 
8192 1:-1.5207437 2:-1.5217263 
8192 1:-1.4306768 2:-1.431681 
8192 1:-1.4237486 2:-1.4268894 
6848.328709413222 1:-1.402964 2:-1.4061387 
8192 1:-1.3752511 2:-1.3752097 
8192 1:-1.3613947 2:-1.3642196 
8192 1:-1.3059689 2:-1.3065892 
8192 1:-1.2782561 2:-1.2802517 
8192 1:-1.243615 2:-1.2452272 
703.60215652267334 1:-1.2366867 2:-1.2394657 
8192 1:-1.1396917 2:-1.1404337 
8192 1:-0.99419915 2:-0.99626348 
8192 1:-0.90413233 2:-0.90595969 
8192 1:-0.86949124 2:-0.86996057 
8192 1:-0.86256303 2:-0.86387241 
8192 1:-0.84177838 2:-0.842643 
8192 1:-0.82792194 2:-0.82933486 
8192 1:-0.82099372 2:-0.82342974 
8192 1:-0.68242938 2:-0.68228015 
8192 1:-0.67550117 2:-0.67847726 
8192 1:-0.62700365 2:-0.62703328 
8192 1:-0.606219 2:-0.60819029 
8192 1:-0.55772148 2:-0.55824549 
8192 1:-0.49536752 2:-0.49802568 
8192 1:-0.4884393 2:-0.48957371 
8192 1:-0.42608535 2:-0.42611905 
8192 1:-0.3637314 2:-0.3660695 
8192 1:-0.35680318 2:-0.3570232 
8192 1:-0.22516706 2:-0.22544036 
8192 1:-0.15588488 2:-0.15768093 
8192 1:-0.051961628 2:-0.053958111 
8192 1:-0.045033411 2:-0.045935395 
3124.9271863986346 1:0.086602714 2:0.084695211 
8192 1:0.10045915 2:0.10013309 
8192 1:0.17666954 2:0.17657749 
8192 1:0.2043824 2:0.20354744 
8192 1:0.23209527 2:0.23088151 
8192 1:0.30830566 2:0.30802741 
8192 1:0.45379822 2:0.45125673 
8192 1:0.48151109 2:0.48053443 
8192 1:0.53000861 2:0.52842038 
8192 1:0.64086008 2:0.63843554 
8192 1:0.65471651 2:0.65393223 
4327.0202352782699 1:0.66857295 2:0.66500953 
8192 1:0.72399869 2:0.72233313 
8192 1:0.84177838 2:0.83980944 
8192 1:0.88334768 2:0.88120071 
8192 1:1.0496249 2:1.0486594 
8192 1:1.0704095 2:1.0698852 
2122.3748920781763 1:1.2366867 2:1.234315 
8192 1:1.243615 2:1.2426146 
6793.3182039876428 1:1.3059689 2:1.3031368 
8192 1:1.5207437 2:1.516395 
8192 1:1.5276719 2:1.5245024 
8192 1:1.5346001 2:1.5335633 
8192 1:1.5830976 2:1.580913 
8192 1:1.6385233 2:1.6376805 
8192 1:1.6731644 2:1.6687934 
8192 1:1.7078055 2:1.7049762 
2990.5825241967082 1:1.7285902 2:1.7253648 
-8192 1:-1.7078055 2:-1.7051892 
-6842.2418794446694 1:-1.6523798 2:-1.6484224 
-8192 1:-1.6246669 2:-1.6230192 
-8192 1:-1.6177387 2:-1.6143369 
-8192 1:-1.5830976 2:-1.582547 
-8192 1:-1.5346001 2:-1.5318172 
-8192 1:-1.4514615 2:-1.4501483 
-8192 1:-1.4098922 2:-1.4071652 
-8192 1:-1.3960357 2:-1.3948349 
-8192 1:-1.3128971 2:-1.3109235 
-8192 1:-1.2921125 2:-1.2891176 
-8192 1:-1.2159021 2:-1.2129439 
-8192 1:-1.1951174 2:-1.1945251 
-8192 1:-1.1466199 2:-1.1448604 
-8192 1:-1.0288402 2:-1.0275333 
-8192 1:-0.9318452 2:-0.93003901 
-8192 1:-0.91798876 2:-0.9170113 
-8192 1:-0.89720411 2:-0.89691379 
-8192 1:-0.88334768 2:-0.88209268 
-8192 1:-0.80020907 2:-0.79994949 
-8192 1:-0.76556799 2:-0.76335259 
-8192 1:-0.73785512 2:-0.73557051 
-8192 1:-0.66857295 2:-0.66826808 
-8192 1:-0.62007543 2:-0.61983124 
-8192 1:-0.59236256 2:-0.59114356 
-8192 1:-0.57157791 2:-0.56964831 
-6233.7630523169901 1:-0.52308039 2:-0.52104451 
-8192 1:-0.48151109 2:-0.48080437 
-8192 1:-0.47458287 2:-0.47416994 
-8192 1:-0.37065961 2:-0.37033981 
-8192 1:-0.25980814 2:-0.25957788 
-8192 1:-0.25287992 2:-0.25077424 
-5271.7529977572485 1:-0.23902349 2:-0.23654117 
-8192 1:-0.14202845 2:-0.141024 
-8192 1:-0.11431558 2:-0.11132574 
-8192 1:0.017320543 2:0.018441654 
-8192 1:0.02424876 2:0.026491792 
-8192 1:0.18359775 2:0.18704229 
-8192 1:0.19052597 2:0.19363584 
-8192 1:0.34987496 2:0.35093707 
-8192 1:0.37065961 2:0.37110541 
-8192 1:0.37758783 2:0.3789757 
-2288.476449106076 1:0.39837248 2:0.40214564 
-8192 1:0.42608535 2:0.42763063 
-8192 1:0.59236256 2:0.59353389 
-8192 1:0.606219 2:0.60890546 
-8192 1:0.69628582 2:0.69657071 
-8192 1:0.70321403 2:0.70421377 
-8192 1:0.80713729 2:0.80742761 
-8192 1:0.85563481 2:0.85667513 
-8192 1:0.9734145 2:0.9754487 
-8192 1:1.0911942 2:1.0928466 
-8192 1:1.1119788 2:1.1160598 
-8192 1:1.3960357 2:1.3969754 
-8192 1:1.4237486 2:1.4259839 
-8192 1:1.4306768 2:1.431847 
-8192 1:1.5138154 2:1.5138361 
-8192 1:1.6038823 2:1.6067137 
-8192 1:1.6523798 2:1.6541508 
-8192 1:1.6662362 2:1.6696483 
-6273.9195292502118 1:1.6800926 2:1.6841103 
-8192 1:1.6870209 2:1.6904761 
