svm_type c_svc
kernel_type rbf
gamma 3.0517578125e-05
nr_class 2
total_sv 105
rho -19.895494325719923
label 0 1
nr_sv 54 51
SV
2687.7316866209453 1:-100 2:-200.29534 
32768 1:-97.59519 2:-195.3035 
32768 1:-94.789579 2:-189.91382 
32768 1:-92.38477 2:-184.80326 
32768 1:-87.975952 2:-176.1087 
32768 1:-82.765531 2:-165.68793 
32768 1:-79.559118 2:-159.15262 
28855.36937641129 1:-78.757515 2:-157.88075 
32768 1:-75.551102 2:-151.21129 
32768 1:-73.947896 2:-148.1633 
32768 1:-71.943888 2:-144.10998 
32768 1:-65.931864 2:-131.98243 
32768 1:-57.51503 2:-115.29788 
32768 1:-52.304609 2:-104.84719 
32768 1:-50.300601 2:-100.68108 
32768 1:-49.8998 2:-99.976507 
32768 1:-48.697395 2:-97.519666 
32768 1:-47.895792 2:-95.97954 
32768 1:-47.49499 2:-95.296151 
32768 1:-39.478958 2:-78.961175 
32768 1:-36.272545 2:-72.567558 
32768 1:-35.07014 2:-70.386894 
32768 1:-32.264529 2:-64.606877 
3237.8972923114279 1:-28.657315 2:-57.637752 
32768 1:-28.256513 2:-56.65962 
32768 1:-24.649299 2:-49.316132 
32768 1:-21.042084 2:-42.366711 
32768 1:-20.641283 2:-41.319799 
32768 1:-13.026052 2:-26.091964 
32768 1:-9.0180361 2:-18.250292 
32768 1:-2.6052104 2:-5.3181914 
32768 1:5.8116232 2:11.58604 
32768 1:10.220441 2:20.432807 
32768 1:11.823647 2:23.553989 
32768 1:13.426854 2:26.717309 
32768 1:17.835671 2:35.645259 
32768 1:27.855711 2:55.609173 
32768 1:30.661323 2:61.150923 
32768 1:37.074148 2:73.882772 
32768 1:37.875752 2:75.676175 
32768 1:41.883768 2:83.592082 
32768 1:48.697395 2:97.187395 
23395.493049428838 1:51.102204 2:101.97753 
32768 1:60.721443 2:121.3572 
32768 1:61.923848 2:123.81364 
25216.86829131997 1:71.543086 2:142.84278 
32768 1:71.943888 2:143.80328 
3237.6856758604185 1:87.975952 2:175.48737 
32768 1:88.376754 2:176.42563 
32768 1:88.777555 2:177.47423 
32768 1:91.583166 2:182.95392 
32768 1:94.789579 2:189.52352 
32768 1:98.797595 2:197.31152 
11785.93544150108 1:100 2:199.67106 
-32768 1:-98.797595 2:-197.34052 
-32768 1:-93.987976 2:-187.83114 
-32768 1:-91.583166 2:-183.14736 
-32768 1:-88.777555 2:-177.27651 
-32768 1:-83.967936 2:-167.82511 
-32768 1:-81.563126 2:-162.85076 
-32768 1:-80.761523 2:-161.4238 
-32768 1:-75.951904 2:-151.71289 
-31896.435341751145 1:-70.340681 2:-140.3739 
-32768 1:-69.138277 2:-138.24232 
-32768 1:-66.332665 2:-132.49472 
-32768 1:-59.519038 2:-118.91667 
-32768 1:-53.907816 2:-107.63384 
-32768 1:-53.106212 2:-106.12617 
-32768 1:-51.903808 2:-103.80032 
-32768 1:-51.102204 2:-102.0851 
-32768 1:-46.292585 2:-92.578826 
-27483.834793060105 1:-44.288577 2:-88.343537 
-32768 1:-38.677355 2:-77.339585 
-32768 1:-35.871743 2:-71.73408 
-32768 1:-34.268537 2:-68.414109 
-32768 1:-33.066132 2:-65.926503 
-32768 1:-27.855711 2:-55.644761 
-32768 1:-27.45491 2:-54.876972 
-32768 1:-21.442886 2:-42.860905 
-32768 1:-15.03006 2:-30.042635 
-32768 1:-14.629259 2:-29.023806 
-32768 1:-13.827655 2:-27.37664 
-32768 1:-8.2164329 2:-16.322617 
-32768 1:1.002004 2:2.1320436 
-32768 1:1.4028056 2:3.0636709 
-17515.000721774475 1:11.022044 2:22.406938 
-32768 1:20.240481 2:40.611114 
-32768 1:21.442886 2:42.945158 
-32768 1:21.843687 2:43.855971 
-32768 1:24.649299 2:49.486716 
-32768 1:34.268537 2:68.686388 
-21521.709956868013 1:35.07014 2:70.465311 
-32768 1:40.280561 2:80.610646 
-32768 1:40.681363 2:81.495163 
-32768 1:46.693387 2:93.439906 
-32768 1:49.498998 2:99.139229 
-32768 1:56.312625 2:112.88467 
-32768 1:63.126253 2:126.47091 
-32768 1:80.761523 2:161.66717 
-32768 1:82.364729 2:165.02426 
-32768 1:82.765531 2:165.70279 
-32768 1:87.57515 2:175.19124 
-32768 1:95.591182 2:191.4296 
-32768 1:96.392786 2:193.22309 
-32768 1:97.59519 2:195.63345 
